digraph Tree {
node [shape=box] ;
0 [label="X[1] <= 127.5\ngini = 0.451\nsamples = 274\nvalue = [180, 94]"] ;
1 [label="X[3] <= 143.5\ngini = 0.287\nsamples = 173\nvalue = [143, 30]"] ;
0 -> 1 [labeldistance=2.5, labelangle=45, headlabel="True"] ;
2 [label="X[4] <= 30.9\ngini = 0.182\nsamples = 128\nvalue = [115, 13]"] ;
1 -> 2 ;
3 [label="X[5] <= 0.675\ngini = 0.03\nsamples = 66\nvalue = [65, 1]"] ;
2 -> 3 ;
4 [label="gini = 0.0\nsamples = 54\nvalue = [54, 0]"] ;
3 -> 4 ;
5 [label="X[4] <= 23.45\ngini = 0.153\nsamples = 12\nvalue = [11, 1]"] ;
3 -> 5 ;
6 [label="gini = 0.0\nsamples = 1\nvalue = [0, 1]"] ;
5 -> 6 ;
7 [label="gini = 0.0\nsamples = 11\nvalue = [11, 0]"] ;
5 -> 7 ;
8 [label="X[5] <= 0.748\ngini = 0.312\nsamples = 62\nvalue = [50, 12]"] ;
2 -> 8 ;
9 [label="X[4] <= 45.35\ngini = 0.229\nsamples = 53\nvalue = [46, 7]"] ;
8 -> 9 ;
10 [label="X[4] <= 31.1\ngini = 0.177\nsamples = 51\nvalue = [46, 5]"] ;
9 -> 10 ;
11 [label="gini = 0.0\nsamples = 1\nvalue = [0, 1]"] ;
10 -> 11 ;
12 [label="X[5] <= 0.509\ngini = 0.147\nsamples = 50\nvalue = [46, 4]"] ;
10 -> 12 ;
13 [label="X[3] <= 36.5\ngini = 0.05\nsamples = 39\nvalue = [38, 1]"] ;
12 -> 13 ;
14 [label="X[1] <= 89.0\ngini = 0.5\nsamples = 2\nvalue = [1, 1]"] ;
13 -> 14 ;
15 [label="gini = 0.0\nsamples = 1\nvalue = [1, 0]"] ;
14 -> 15 ;
16 [label="gini = 0.0\nsamples = 1\nvalue = [0, 1]"] ;
14 -> 16 ;
17 [label="gini = 0.0\nsamples = 37\nvalue = [37, 0]"] ;
13 -> 17 ;
18 [label="X[5] <= 0.537\ngini = 0.397\nsamples = 11\nvalue = [8, 3]"] ;
12 -> 18 ;
19 [label="gini = 0.0\nsamples = 3\nvalue = [0, 3]"] ;
18 -> 19 ;
20 [label="gini = 0.0\nsamples = 8\nvalue = [8, 0]"] ;
18 -> 20 ;
21 [label="gini = 0.0\nsamples = 2\nvalue = [0, 2]"] ;
9 -> 21 ;
22 [label="X[5] <= 0.933\ngini = 0.494\nsamples = 9\nvalue = [4, 5]"] ;
8 -> 22 ;
23 [label="gini = 0.0\nsamples = 4\nvalue = [0, 4]"] ;
22 -> 23 ;
24 [label="X[5] <= 1.272\ngini = 0.32\nsamples = 5\nvalue = [4, 1]"] ;
22 -> 24 ;
25 [label="gini = 0.0\nsamples = 4\nvalue = [4, 0]"] ;
24 -> 25 ;
26 [label="gini = 0.0\nsamples = 1\nvalue = [0, 1]"] ;
24 -> 26 ;
27 [label="X[6] <= 28.5\ngini = 0.47\nsamples = 45\nvalue = [28, 17]"] ;
1 -> 27 ;
28 [label="X[1] <= 96.0\ngini = 0.159\nsamples = 23\nvalue = [21, 2]"] ;
27 -> 28 ;
29 [label="X[6] <= 24.0\ngini = 0.5\nsamples = 2\nvalue = [1, 1]"] ;
28 -> 29 ;
30 [label="gini = 0.0\nsamples = 1\nvalue = [0, 1]"] ;
29 -> 30 ;
31 [label="gini = 0.0\nsamples = 1\nvalue = [1, 0]"] ;
29 -> 31 ;
32 [label="X[5] <= 0.955\ngini = 0.091\nsamples = 21\nvalue = [20, 1]"] ;
28 -> 32 ;
33 [label="gini = 0.0\nsamples = 19\nvalue = [19, 0]"] ;
32 -> 33 ;
34 [label="X[1] <= 126.0\ngini = 0.5\nsamples = 2\nvalue = [1, 1]"] ;
32 -> 34 ;
35 [label="gini = 0.0\nsamples = 1\nvalue = [0, 1]"] ;
34 -> 35 ;
36 [label="gini = 0.0\nsamples = 1\nvalue = [1, 0]"] ;
34 -> 36 ;
37 [label="X[1] <= 122.5\ngini = 0.434\nsamples = 22\nvalue = [7, 15]"] ;
27 -> 37 ;
38 [label="X[1] <= 103.5\ngini = 0.291\nsamples = 17\nvalue = [3, 14]"] ;
37 -> 38 ;
39 [label="X[2] <= 73.0\ngini = 0.5\nsamples = 6\nvalue = [3, 3]"] ;
38 -> 39 ;
40 [label="X[0] <= 9.0\ngini = 0.375\nsamples = 4\nvalue = [3, 1]"] ;
39 -> 40 ;
41 [label="gini = 0.0\nsamples = 3\nvalue = [3, 0]"] ;
40 -> 41 ;
42 [label="gini = 0.0\nsamples = 1\nvalue = [0, 1]"] ;
40 -> 42 ;
43 [label="gini = 0.0\nsamples = 2\nvalue = [0, 2]"] ;
39 -> 43 ;
44 [label="gini = 0.0\nsamples = 11\nvalue = [0, 11]"] ;
38 -> 44 ;
45 [label="X[3] <= 501.0\ngini = 0.32\nsamples = 5\nvalue = [4, 1]"] ;
37 -> 45 ;
46 [label="gini = 0.0\nsamples = 4\nvalue = [4, 0]"] ;
45 -> 46 ;
47 [label="gini = 0.0\nsamples = 1\nvalue = [0, 1]"] ;
45 -> 47 ;
48 [label="X[4] <= 29.6\ngini = 0.464\nsamples = 101\nvalue = [37, 64]"] ;
0 -> 48 [labeldistance=2.5, labelangle=-45, headlabel="False"] ;
49 [label="X[6] <= 26.5\ngini = 0.435\nsamples = 25\nvalue = [17, 8]"] ;
48 -> 49 ;
50 [label="gini = 0.0\nsamples = 13\nvalue = [13, 0]"] ;
49 -> 50 ;
51 [label="X[0] <= 3.5\ngini = 0.444\nsamples = 12\nvalue = [4, 8]"] ;
49 -> 51 ;
52 [label="gini = 0.0\nsamples = 6\nvalue = [0, 6]"] ;
51 -> 52 ;
53 [label="X[1] <= 153.5\ngini = 0.444\nsamples = 6\nvalue = [4, 2]"] ;
51 -> 53 ;
54 [label="gini = 0.0\nsamples = 4\nvalue = [4, 0]"] ;
53 -> 54 ;
55 [label="gini = 0.0\nsamples = 2\nvalue = [0, 2]"] ;
53 -> 55 ;
56 [label="X[5] <= 0.348\ngini = 0.388\nsamples = 76\nvalue = [20, 56]"] ;
48 -> 56 ;
57 [label="X[3] <= 274.5\ngini = 0.494\nsamples = 27\nvalue = [12, 15]"] ;
56 -> 57 ;
58 [label="X[2] <= 86.0\ngini = 0.488\nsamples = 19\nvalue = [11, 8]"] ;
57 -> 58 ;
59 [label="X[5] <= 0.156\ngini = 0.408\nsamples = 14\nvalue = [10, 4]"] ;
58 -> 59 ;
60 [label="gini = 0.0\nsamples = 1\nvalue = [0, 1]"] ;
59 -> 60 ;
61 [label="X[4] <= 30.4\ngini = 0.355\nsamples = 13\nvalue = [10, 3]"] ;
59 -> 61 ;
62 [label="gini = 0.0\nsamples = 1\nvalue = [0, 1]"] ;
61 -> 62 ;
63 [label="X[6] <= 25.0\ngini = 0.278\nsamples = 12\nvalue = [10, 2]"] ;
61 -> 63 ;
64 [label="gini = 0.0\nsamples = 1\nvalue = [0, 1]"] ;
63 -> 64 ;
65 [label="X[6] <= 45.5\ngini = 0.165\nsamples = 11\nvalue = [10, 1]"] ;
63 -> 65 ;
66 [label="gini = 0.0\nsamples = 9\nvalue = [9, 0]"] ;
65 -> 66 ;
67 [label="X[1] <= 154.0\ngini = 0.5\nsamples = 2\nvalue = [1, 1]"] ;
65 -> 67 ;
68 [label="gini = 0.0\nsamples = 1\nvalue = [0, 1]"] ;
67 -> 68 ;
69 [label="gini = 0.0\nsamples = 1\nvalue = [1, 0]"] ;
67 -> 69 ;
70 [label="X[1] <= 139.0\ngini = 0.32\nsamples = 5\nvalue = [1, 4]"] ;
58 -> 70 ;
71 [label="X[4] <= 53.85\ngini = 0.5\nsamples = 2\nvalue = [1, 1]"] ;
70 -> 71 ;
72 [label="gini = 0.0\nsamples = 1\nvalue = [1, 0]"] ;
71 -> 72 ;
73 [label="gini = 0.0\nsamples = 1\nvalue = [0, 1]"] ;
71 -> 73 ;
74 [label="gini = 0.0\nsamples = 3\nvalue = [0, 3]"] ;
70 -> 74 ;
75 [label="X[5] <= 0.142\ngini = 0.219\nsamples = 8\nvalue = [1, 7]"] ;
57 -> 75 ;
76 [label="gini = 0.0\nsamples = 1\nvalue = [1, 0]"] ;
75 -> 76 ;
77 [label="gini = 0.0\nsamples = 7\nvalue = [0, 7]"] ;
75 -> 77 ;
78 [label="X[3] <= 511.5\ngini = 0.273\nsamples = 49\nvalue = [8, 41]"] ;
56 -> 78 ;
79 [label="X[1] <= 166.5\ngini = 0.198\nsamples = 45\nvalue = [5, 40]"] ;
78 -> 79 ;
80 [label="X[1] <= 164.0\ngini = 0.293\nsamples = 28\nvalue = [5, 23]"] ;
79 -> 80 ;
81 [label="X[6] <= 28.5\ngini = 0.252\nsamples = 27\nvalue = [4, 23]"] ;
80 -> 81 ;
82 [label="X[2] <= 77.0\ngini = 0.463\nsamples = 11\nvalue = [4, 7]"] ;
81 -> 82 ;
83 [label="X[0] <= 4.5\ngini = 0.346\nsamples = 9\nvalue = [2, 7]"] ;
82 -> 83 ;
84 [label="X[1] <= 132.0\ngini = 0.219\nsamples = 8\nvalue = [1, 7]"] ;
83 -> 84 ;
85 [label="X[1] <= 128.5\ngini = 0.5\nsamples = 2\nvalue = [1, 1]"] ;
84 -> 85 ;
86 [label="gini = 0.0\nsamples = 1\nvalue = [0, 1]"] ;
85 -> 86 ;
87 [label="gini = 0.0\nsamples = 1\nvalue = [1, 0]"] ;
85 -> 87 ;
88 [label="gini = 0.0\nsamples = 6\nvalue = [0, 6]"] ;
84 -> 88 ;
89 [label="gini = 0.0\nsamples = 1\nvalue = [1, 0]"] ;
83 -> 89 ;
90 [label="gini = 0.0\nsamples = 2\nvalue = [2, 0]"] ;
82 -> 90 ;
91 [label="gini = 0.0\nsamples = 16\nvalue = [0, 16]"] ;
81 -> 91 ;
92 [label="gini = 0.0\nsamples = 1\nvalue = [1, 0]"] ;
80 -> 92 ;
93 [label="gini = 0.0\nsamples = 17\nvalue = [0, 17]"] ;
79 -> 93 ;
94 [label="X[2] <= 69.0\ngini = 0.375\nsamples = 4\nvalue = [3, 1]"] ;
78 -> 94 ;
95 [label="gini = 0.0\nsamples = 1\nvalue = [0, 1]"] ;
94 -> 95 ;
96 [label="gini = 0.0\nsamples = 3\nvalue = [3, 0]"] ;
94 -> 96 ;
}
